{"epoch": 37, "val_loss": 0.5828697016388461, "gradients/linear.bias": {"_type": "histogram", "values": [1.0, 0.0, 0.0, 0.0, 0.0, 0.0, 0.0, 0.0, 0.0, 0.0, 0.0, 0.0, 0.0, 0.0, 0.0, 0.0, 0.0, 0.0, 0.0, 0.0, 0.0, 1.0, 0.0, 0.0, 0.0, 0.0, 0.0, 0.0, 0.0, 0.0, 0.0, 0.0, 0.0, 0.0, 0.0, 0.0, 0.0, 0.0, 0.0, 0.0, 0.0, 0.0, 0.0, 0.0, 0.0, 0.0, 0.0, 0.0, 0.0, 0.0, 0.0, 0.0, 0.0, 0.0, 0.0, 0.0, 0.0, 0.0, 0.0, 0.0, 0.0, 0.0, 0.0, 1.0], "bins": [-2.5551133148837835e-05, -2.465773286530748e-05, -2.3764332581777126e-05, -2.287093229824677e-05, -2.1977532014716417e-05, -2.1084131731186062e-05, -2.019073326664511e-05, -1.9297332983114757e-05, -1.8403932699584402e-05, -1.7510532416054048e-05, -1.6617132132523693e-05, -1.572373184899334e-05, -1.4830332474957686e-05, -1.3936932191427331e-05, -1.3043532817391679e-05, -1.2150132533861324e-05, -1.125673225033097e-05, -1.0363331966800615e-05, -9.46993168327026e-06, -8.576532309234608e-06, -7.683132025704253e-06, -6.789731742173899e-06, -5.896331913390895e-06, -5.002932084607892e-06, -4.109531801077537e-06, -3.216131744920858e-06, -2.322731688764179e-06, -1.4293316326075e-06, -5.35931576450821e-07, 3.574687070795335e-07, 1.250868535862537e-06, 2.1442683646455407e-06, 3.0376686481758952e-06, 3.93106893170625e-06, 4.824468760489253e-06, 5.717868589272257e-06, 6.6112688728026114e-06, 7.504669156332966e-06, 8.398068530368619e-06, 9.291468813898973e-06, 1.0184869097429328e-05, 1.1078269380959682e-05, 1.1971669664490037e-05, 1.286506903852569e-05, 1.3758469322056044e-05, 1.4651869605586398e-05, 1.554526897962205e-05, 1.6438669263152406e-05, 1.733206954668276e-05, 1.8225469830213115e-05, 1.911887011374347e-05, 2.0012270397273824e-05, 2.0905670680804178e-05, 2.1799070964334533e-05, 2.2692469428875484e-05, 2.3585869712405838e-05, 2.4479269995936193e-05, 2.5372670279466547e-05, 2.62660705629969e-05, 2.7159470846527256e-05, 2.8052869311068207e-05, 2.894626959459856e-05, 2.9839669878128916e-05, 3.073307016165927e-05, 3.1626470445189625e-05]}, "gradients/linear.weight": {"_type": "histogram", "values": [2.0, 0.0, 0.0, 1.0, 1.0, 1.0, 0.0, 0.0, 1.0, 0.0, 1.0, 0.0, 1.0, 0.0, 0.0, 0.0, 1.0, 1.0, 1.0, 1.0, 4.0, 5.0, 3.0, 3.0, 5.0, 1.0, 2.0, 1.0, 9.0, 6.0, 7.0, 1.0, 6.0, 5.0, 2.0, 3.0, 3.0, 3.0, 3.0, 3.0, 0.0, 0.0, 0.0, 0.0, 0.0, 0.0, 0.0, 1.0, 0.0, 2.0, 0.0, 1.0, 1.0, 2.0, 0.0, 0.0, 0.0, 0.0, 0.0, 1.0, 0.0, 0.0, 0.0, 1.0], "bins": [-0.00010535478941164911, -0.00010178066440857947, -9.820653940550983e-05, -9.463241440244019e-05, -9.105828939937055e-05, -8.748416439630091e-05, -8.391003939323127e-05, -8.033591439016163e-05, -7.6761789387092e-05, -7.318766438402236e-05, -6.961353938095272e-05, -6.603941437788308e-05, -6.246528937481344e-05, -5.88911643717438e-05, -5.531703936867416e-05, -5.174291436560452e-05, -4.8168785724556074e-05, -4.4594660721486434e-05, -4.1020535718416795e-05, -3.7446410715347156e-05, -3.387228571227752e-05, -3.0298158890218474e-05, -2.6724033887148835e-05, -2.3149908884079196e-05, -1.9575783881009556e-05, -1.6001658877939917e-05, -1.2427533874870278e-05, -8.853407962305937e-06, -5.279282959236298e-06, -1.7051570466719568e-06, 1.8689679563976824e-06, 5.443092959467322e-06, 9.01721796253696e-06, 1.25913429656066e-05, 1.616546796867624e-05, 1.973959297174588e-05, 2.3313717974815518e-05, 2.688784479687456e-05, 3.04619697999442e-05, 3.4036092984024435e-05, 3.7610217987094074e-05, 4.1184342990163714e-05, 4.475846799323335e-05, 4.833259299630299e-05, 5.190671799937263e-05, 5.548084300244227e-05, 5.905496800551191e-05, 6.262909300858155e-05, 6.62032252876088e-05, 6.977735029067844e-05, 7.335147529374808e-05, 7.692560029681772e-05, 8.049972529988736e-05, 8.4073850302957e-05, 8.764797530602664e-05, 9.122210030909628e-05, 9.479622531216592e-05, 9.837035031523556e-05, 0.0001019444753183052, 0.00010551860032137483, 0.00010909272532444447, 0.00011266685032751411, 0.00011624097533058375, 0.00011981510033365339, 0.00012338922533672303]}, "gradients/rnn_3.weight_ih_l0": {"_type": "histogram", "values": [1.0, 0.0, 1.0, 0.0, 0.0, 1.0, 1.0, 0.0, 0.0, 0.0, 0.0, 0.0, 1.0, 0.0, 1.0, 0.0, 0.0, 0.0, 0.0, 0.0, 1.0, 1.0, 0.0, 0.0, 1.0, 1.0, 1.0, 2.0, 6.0, 42.0, 74.0, 3444.0, 436.0, 46.0, 19.0, 2.0, 0.0, 0.0, 0.0, 1.0, 1.0, 0.0, 0.0, 1.0, 0.0, 0.0, 1.0, 0.0, 0.0, 1.0, 0.0, 1.0, 1.0, 1.0, 0.0, 0.0, 0.0, 2.0, 2.0, 1.0, 0.0, 0.0, 0.0, 1.0], "bins": [-0.009744513779878616, -0.009438087232410908, -0.0091316606849432, -0.00882523413747549, -0.008518807590007782, -0.008212380111217499, -0.00790595356374979, -0.007599527016282082, -0.007293100468814373, -0.006986673921346664, -0.006680247373878956, -0.00637382036074996, -0.006067393813282251, -0.005760967265814543, -0.005454540252685547, -0.005148113705217838, -0.00484168715775013, -0.004535260610282421, -0.0042288340628147125, -0.003922407049685717, -0.003615980502218008, -0.0033095539547502995, -0.003003127174451947, -0.002696700394153595, -0.0023902738466858864, -0.002083847299218178, -0.0017774205189198256, -0.0014709938550367951, -0.0011645671911537647, -0.0008581405272707343, -0.0005517138633877039, -0.00024528708308935165, 6.114039570093155e-05, 0.00036756705958396196, 0.0006739937234669924, 0.0009804203873500228, 0.0012868470512330532, 0.0015932737151160836, 0.001899700378999114, 0.0022061271592974663, 0.002512553706765175, 0.0028189802542328835, 0.0031254070345312357, 0.003431833814829588, 0.0037382603622972965, 0.004044686909765005, 0.004351113922894001, 0.00465754047036171, 0.004963967017829418, 0.005270393565297127, 0.005576820112764835, 0.005883247125893831, 0.00618967367336154, 0.006496100220829248, 0.006802527233958244, 0.007108953781425953, 0.0074153803288936615, 0.00772180687636137, 0.008028233423829079, 0.008334659971296787, 0.008641086518764496, 0.008947513997554779, 0.009253940545022488, 0.009560367092490196, 0.009866793639957905]}, "gradients/rnn_3.weight_hh_l0": {"_type": "histogram", "values": [3.0, 1.0, 1.0, 2.0, 1.0, 0.0, 1.0, 1.0, 1.0, 0.0, 0.0, 0.0, 1.0, 1.0, 0.0, 0.0, 1.0, 0.0, 0.0, 0.0, 0.0, 0.0, 0.0, 0.0, 0.0, 0.0, 0.0, 5.0, 29.0, 51.0, 553.0, 3278.0, 78.0, 60.0, 16.0, 2.0, 0.0, 0.0, 1.0, 0.0, 2.0, 0.0, 1.0, 0.0, 0.0, 0.0, 0.0, 0.0, 0.0, 0.0, 0.0, 0.0, 0.0, 0.0, 0.0, 1.0, 1.0, 0.0, 0.0, 2.0, 0.0, 0.0, 0.0, 2.0], "bins": [-0.01517291460186243, -0.014686095528304577, -0.014199277386069298, -0.013712458312511444, -0.01322563923895359, -0.012738820165395737, -0.012252001091837883, -0.011765182949602604, -0.01127836387604475, -0.010791544802486897, -0.010304726660251617, -0.009817907586693764, -0.00933108851313591, -0.008844269439578056, -0.008357450366020203, -0.007870632223784924, -0.00738381315022707, -0.006896994076669216, -0.00641017546877265, -0.005923356860876083, -0.00543653778731823, -0.004949718713760376, -0.00446290010586381, -0.003976081497967243, -0.0034892624244093895, -0.0030024435836821795, -0.0025156247429549694, -0.0020288059022277594, -0.0015419870615005493, -0.0010551682207733393, -0.0005683493800461292, -8.153053931891918e-05, 0.0004052892327308655, 0.0008921080734580755, 0.0013789269141852856, 0.0018657457549124956, 0.0023525645956397057, 0.0028393834363669157, 0.0033262022770941257, 0.003813021117821336, 0.004299839958548546, 0.0047866590321063995, 0.005273477640002966, 0.005760296247899532, 0.006247115321457386, 0.00673393439501524, 0.007220753002911806, 0.0077075716108083725, 0.008194390684366226, 0.00868120975792408, 0.009168028831481934, 0.009654846973717213, 0.010141666047275066, 0.01062848512083292, 0.0111153032630682, 0.011602122336626053, 0.012088941410183907, 0.01257576048374176, 0.013062579557299614, 0.013549397699534893, 0.014036216773092747, 0.0145230358466506, 0.01500985398888588, 0.015496673062443733, 0.015983492136001587]}, "gradients/rnn_3.bias_hh_l0": {"_type": "histogram", "values": [2.0, 3.0, 1.0, 0.0, 14.0, 46.0, 52.0, 5.0, 1.0, 1.0, 2.0, 0.0, 0.0, 0.0, 0.0, 0.0, 0.0, 0.0, 0.0, 0.0, 0.0, 0.0, 0.0, 0.0, 0.0, 0.0, 0.0, 0.0, 0.0, 0.0, 0.0, 0.0, 0.0, 0.0, 0.0, 0.0, 0.0, 0.0, 0.0, 0.0, 0.0, 0.0, 0.0, 0.0, 0.0, 0.0, 0.0, 0.0, 0.0, 0.0, 0.0, 0.0, 0.0, 0.0, 0.0, 0.0, 0.0, 0.0, 0.0, 0.0, 0.0, 0.0, 0.0, 1.0], "bins": [-0.0017439804505556822, -0.0014541707932949066, -0.001164361136034131, -0.0008745515951886773, -0.0005847419379279017, -0.0002949322806671262, -5.1227398216724396e-06, 0.0002846869174391031, 0.0005744965746998787, 0.0008643062319606543, 0.0011541158892214298, 0.0014439254300668836, 0.0017337350873276591, 0.002023544628173113, 0.0023133542854338884, 0.002603163942694664, 0.0028929735999554396, 0.003182783257216215, 0.0034725929144769907, 0.0037624025717377663, 0.004052211996167898, 0.004342021886259317, 0.004631831310689449, 0.0049216412007808685, 0.0052114506252110004, 0.005501260049641132, 0.005791069939732552, 0.0060808793641626835, 0.006370689254254103, 0.006660498678684235, 0.006950308568775654, 0.007240117993205786, 0.007529928348958492, 0.007819738239049911, 0.008109547197818756, 0.008399357087910175, 0.008689166978001595, 0.008978976868093014, 0.009268785826861858, 0.009558595716953278, 0.009848405607044697, 0.010138215497136116, 0.01042802445590496, 0.01071783434599638, 0.011007644236087799, 0.011297454126179218, 0.011587263084948063, 0.011877072975039482, 0.012166881933808327, 0.012456691823899746, 0.01274650078266859, 0.01303631067276001, 0.013326120562851429, 0.013615930452942848, 0.013905739411711693, 0.014195549301803112, 0.014485359191894531, 0.01477516908198595, 0.015064978040754795, 0.015354787930846214, 0.01564459688961506, 0.015934407711029053, 0.016224216669797897, 0.016514025628566742, 0.016803836449980736]}, "gradients/rnn_3.bias_ih_l0": {"_type": "histogram", "values": [2.0, 3.0, 1.0, 0.0, 14.0, 46.0, 52.0, 5.0, 1.0, 1.0, 2.0, 0.0, 0.0, 0.0, 0.0, 0.0, 0.0, 0.0, 0.0, 0.0, 0.0, 0.0, 0.0, 0.0, 0.0, 0.0, 0.0, 0.0, 0.0, 0.0, 0.0, 0.0, 0.0, 0.0, 0.0, 0.0, 0.0, 0.0, 0.0, 0.0, 0.0, 0.0, 0.0, 0.0, 0.0, 0.0, 0.0, 0.0, 0.0, 0.0, 0.0, 0.0, 0.0, 0.0, 0.0, 0.0, 0.0, 0.0, 0.0, 0.0, 0.0, 0.0, 0.0, 1.0], "bins": [-0.0017439804505556822, -0.0014541707932949066, -0.001164361136034131, -0.0008745515951886773, -0.0005847419379279017, -0.0002949322806671262, -5.1227398216724396e-06, 0.0002846869174391031, 0.0005744965746998787, 0.0008643062319606543, 0.0011541158892214298, 0.0014439254300668836, 0.0017337350873276591, 0.002023544628173113, 0.0023133542854338884, 0.002603163942694664, 0.0028929735999554396, 0.003182783257216215, 0.0034725929144769907, 0.0037624025717377663, 0.004052211996167898, 0.004342021886259317, 0.004631831310689449, 0.0049216412007808685, 0.0052114506252110004, 0.005501260049641132, 0.005791069939732552, 0.0060808793641626835, 0.006370689254254103, 0.006660498678684235, 0.006950308568775654, 0.007240117993205786, 0.007529928348958492, 0.007819738239049911, 0.008109547197818756, 0.008399357087910175, 0.008689166978001595, 0.008978976868093014, 0.009268785826861858, 0.009558595716953278, 0.009848405607044697, 0.010138215497136116, 0.01042802445590496, 0.01071783434599638, 0.011007644236087799, 0.011297454126179218, 0.011587263084948063, 0.011877072975039482, 0.012166881933808327, 0.012456691823899746, 0.01274650078266859, 0.01303631067276001, 0.013326120562851429, 0.013615930452942848, 0.013905739411711693, 0.014195549301803112, 0.014485359191894531, 0.01477516908198595, 0.015064978040754795, 0.015354787930846214, 0.01564459688961506, 0.015934407711029053, 0.016224216669797897, 0.016514025628566742, 0.016803836449980736]}, "gradients/rnn_2.weight_ih_l0": {"_type": "histogram", "values": [1.0, 0.0, 0.0, 0.0, 1.0, 0.0, 1.0, 1.0, 1.0, 0.0, 4.0, 1.0, 3.0, 2.0, 1.0, 4.0, 7.0, 3.0, 8.0, 9.0, 9.0, 20.0, 16.0, 16.0, 33.0, 40.0, 56.0, 95.0, 255.0, 1080.0, 1402.0, 450.0, 211.0, 97.0, 57.0, 46.0, 34.0, 27.0, 24.0, 17.0, 12.0, 9.0, 9.0, 6.0, 7.0, 5.0, 5.0, 0.0, 1.0, 1.0, 3.0, 1.0, 0.0, 2.0, 1.0, 0.0, 1.0, 0.0, 0.0, 0.0, 0.0, 0.0, 0.0, 1.0], "bins": [-0.0012625388335436583, -0.0012207732070237398, -0.0011790076969191432, -0.0011372420703992248, -0.0010954765602946281, -0.0010537109337747097, -0.0010119453072547913, -0.0009701797389425337, -0.0009284141706302762, -0.0008866486023180187, -0.0008448830340057611, -0.0008031174074858427, -0.0007613518391735852, -0.0007195862708613276, -0.0006778206443414092, -0.0006360550760291517, -0.0005942895077168941, -0.0005525239394046366, -0.0005107583710923791, -0.00046899274457246065, -0.0004272271762602031, -0.0003854616079479456, -0.0003436960105318576, -0.0003019304131157696, -0.0002601648448035121, -0.00021839926193933934, -0.00017663367907516658, -0.00013486809621099383, -9.310251334682107e-05, -5.133693048264831e-05, -9.571347618475556e-06, 3.219424979761243e-05, 7.395970169454813e-05, 0.00011572528455872089, 0.00015749086742289364, 0.0001992564502870664, 0.00024102203315123916, 0.0002827876014634967, 0.00032455319887958467, 0.00036631879629567266, 0.0004080843646079302, 0.0004498499329201877, 0.0004916155012324452, 0.0005333811277523637, 0.0005751466960646212, 0.0006169122643768787, 0.0006586778908967972, 0.0007004434592090547, 0.0007422090275213122, 0.0007839745958335698, 0.0008257401641458273, 0.0008675057906657457, 0.0009092713589780033, 0.0009510369272902608, 0.0009928025538101792, 0.0010345680639147758, 0.0010763336904346943, 0.0011180993169546127, 0.0011598648270592093, 0.0012016304535791278, 0.0012433959636837244, 0.0012851615902036428, 0.0013269272167235613, 0.0013686928432434797, 0.0014104583533480763]}, "gradients/rnn_2.weight_hh_l0": {"_type": "histogram", "values": [1.0, 0.0, 0.0, 1.0, 0.0, 1.0, 1.0, 2.0, 0.0, 2.0, 3.0, 3.0, 3.0, 3.0, 4.0, 5.0, 4.0, 3.0, 6.0, 7.0, 5.0, 12.0, 8.0, 11.0, 24.0, 21.0, 36.0, 58.0, 98.0, 144.0, 282.0, 693.0, 1674.0, 428.0, 161.0, 105.0, 67.0, 48.0, 33.0, 19.0, 20.0, 11.0, 9.0, 8.0, 7.0, 10.0, 9.0, 5.0, 9.0, 4.0, 4.0, 3.0, 4.0, 5.0, 2.0, 2.0, 1.0, 1.0, 2.0, 1.0, 2.0, 0.0, 0.0, 1.0], "bins": [-0.004807008896023035, -0.004658446181565523, -0.004509883467108011, -0.004361320752650499, -0.0042127580381929874, -0.0040641953237354755, -0.003915632609277964, -0.0037670701276510954, -0.0036185074131935835, -0.0034699446987360716, -0.0033213819842785597, -0.0031728192698210478, -0.0030242567881941795, -0.0028756940737366676, -0.0027271313592791557, -0.002578568644821644, -0.002430005930364132, -0.00228144321590662, -0.002132880501449108, -0.0019843177869915962, -0.0018357551889494061, -0.0016871924744918942, -0.0015386298764497042, -0.0013900671619921923, -0.0012415044475346804, -0.0010929417330771685, -0.0009443790768273175, -0.0007958164205774665, -0.0006472537061199546, -0.0004986909916624427, -0.0003501283354125917, -0.0002015656791627407, -5.3002964705228806e-05, 9.555972064845264e-05, 0.00024412240600213408, 0.00039268509135581553, 0.000541247776709497, 0.0006898104911670089, 0.0008383731474168599, 0.0009869358036667109, 0.0011354985181242228, 0.0012840612325817347, 0.0014326239470392466, 0.0015811865450814366, 0.0017297492595389485, 0.0018783119739964604, 0.0020268745720386505, 0.0021754372864961624, 0.0023240000009536743, 0.0024725627154111862, 0.002621125429868698, 0.00276968814432621, 0.002918250858783722, 0.003066813573241234, 0.003215376054868102, 0.003363938769325614, 0.003512501483783126, 0.0036610641982406378, 0.0038096269126981497, 0.003958189394325018, 0.00410675210878253, 0.004255314823240042, 0.004403877537697554, 0.0045524402521550655, 0.0047010029666125774]}, "gradients/rnn_2.bias_hh_l0": {"_type": "histogram", "values": [1.0, 0.0, 0.0, 1.0, 1.0, 0.0, 0.0, 0.0, 0.0, 1.0, 0.0, 1.0, 1.0, 1.0, 0.0, 2.0, 0.0, 1.0, 0.0, 1.0, 2.0, 3.0, 6.0, 6.0, 16.0, 10.0, 16.0, 19.0, 15.0, 8.0, 1.0, 4.0, 1.0, 0.0, 0.0, 0.0, 1.0, 0.0, 2.0, 0.0, 0.0, 0.0, 0.0, 0.0, 0.0, 2.0, 0.0, 0.0, 1.0, 0.0, 1.0, 1.0, 0.0, 0.0, 1.0, 0.0, 0.0, 0.0, 0.0, 0.0, 0.0, 0.0, 0.0, 1.0], "bins": [-0.006208445411175489, -0.005982471629977226, -0.005756497383117676, -0.005530523601919413, -0.0053045498207211494, -0.005078575573861599, -0.004852601792663336, -0.004626628011465073, -0.004400653764605522, -0.004174679983407259, -0.0039487057365477085, -0.0037227319553494453, -0.003496758174151182, -0.0032707841601222754, -0.0030448101460933685, -0.0028188363648951054, -0.002592862583696842, -0.0023668885696679354, -0.002140914788469672, -0.0019149407744407654, -0.0016889668768271804, -0.0014629929792135954, -0.0012370189651846886, -0.0010110450675711036, -0.0007850711699575186, -0.0005590972723439336, -0.0003331233165226877, -0.00010714936070144176, 0.00011882453691214323, 0.0003447984345257282, 0.000570772448554635, 0.00079674634616822, 0.0010227197781205177, 0.0012486936757341027, 0.0014746675733476877, 0.0017006415873765945, 0.0019266154849901795, 0.0021525893826037645, 0.0023785633966326714, 0.0026045371778309345, 0.0028305111918598413, 0.003056485205888748, 0.0032824589870870113, 0.003508433001115918, 0.003734407015144825, 0.003960380796343088, 0.004186354577541351, 0.004412328824400902, 0.004638302605599165, 0.004864276386797428, 0.005090250633656979, 0.005316224414855242, 0.005542198196053505, 0.005768172442913055, 0.005994146224111319, 0.006220120005309582, 0.006446094252169132, 0.006672068033367395, 0.006898042280226946, 0.007124016061425209, 0.007349989842623472, 0.007575963623821735, 0.007801937870681286, 0.008027912117540836, 0.008253885433077812]}, "gradients/rnn_2.bias_ih_l0": {"_type": "histogram", "values": [1.0, 0.0, 0.0, 1.0, 1.0, 0.0, 0.0, 0.0, 0.0, 1.0, 0.0, 1.0, 1.0, 1.0, 0.0, 2.0, 0.0, 1.0, 0.0, 1.0, 2.0, 3.0, 6.0, 6.0, 16.0, 10.0, 16.0, 19.0, 15.0, 8.0, 1.0, 4.0, 1.0, 0.0, 0.0, 0.0, 1.0, 0.0, 2.0, 0.0, 0.0, 0.0, 0.0, 0.0, 0.0, 2.0, 0.0, 0.0, 1.0, 0.0, 1.0, 1.0, 0.0, 0.0, 1.0, 0.0, 0.0, 0.0, 0.0, 0.0, 0.0, 0.0, 0.0, 1.0], "bins": [-0.006208445411175489, -0.005982471629977226, -0.005756497383117676, -0.005530523601919413, -0.0053045498207211494, -0.005078575573861599, -0.004852601792663336, -0.004626628011465073, -0.004400653764605522, -0.004174679983407259, -0.0039487057365477085, -0.0037227319553494453, -0.003496758174151182, -0.0032707841601222754, -0.0030448101460933685, -0.0028188363648951054, -0.002592862583696842, -0.0023668885696679354, -0.002140914788469672, -0.0019149407744407654, -0.0016889668768271804, -0.0014629929792135954, -0.0012370189651846886, -0.0010110450675711036, -0.0007850711699575186, -0.0005590972723439336, -0.0003331233165226877, -0.00010714936070144176, 0.00011882453691214323, 0.0003447984345257282, 0.000570772448554635, 0.00079674634616822, 0.0010227197781205177, 0.0012486936757341027, 0.0014746675733476877, 0.0017006415873765945, 0.0019266154849901795, 0.0021525893826037645, 0.0023785633966326714, 0.0026045371778309345, 0.0028305111918598413, 0.003056485205888748, 0.0032824589870870113, 0.003508433001115918, 0.003734407015144825, 0.003960380796343088, 0.004186354577541351, 0.004412328824400902, 0.004638302605599165, 0.004864276386797428, 0.005090250633656979, 0.005316224414855242, 0.005542198196053505, 0.005768172442913055, 0.005994146224111319, 0.006220120005309582, 0.006446094252169132, 0.006672068033367395, 0.006898042280226946, 0.007124016061425209, 0.007349989842623472, 0.007575963623821735, 0.007801937870681286, 0.008027912117540836, 0.008253885433077812]}, "gradients/rnn_1.weight_ih_l0": {"_type": "histogram", "values": [1.0, 0.0, 0.0, 0.0, 0.0, 1.0, 0.0, 0.0, 0.0, 0.0, 1.0, 0.0, 2.0, 0.0, 2.0, 3.0, 1.0, 2.0, 5.0, 1.0, 6.0, 5.0, 4.0, 11.0, 13.0, 9.0, 18.0, 19.0, 31.0, 51.0, 62.0, 71.0, 148.0, 228.0, 361.0, 619.0, 1269.0, 3088.0, 7044.0, 6713.0, 2874.0, 1262.0, 594.0, 351.0, 225.0, 152.0, 83.0, 67.0, 53.0, 38.0, 27.0, 19.0, 14.0, 11.0, 10.0, 5.0, 9.0, 4.0, 5.0, 0.0, 0.0, 4.0, 1.0, 3.0], "bins": [-0.002019575797021389, -0.001967738615348935, -0.0019159013172611594, -0.0018640641355887055, -0.0018122268375009298, -0.001760389655828476, -0.001708552474156022, -0.0016567151760682464, -0.0016048778779804707, -0.0015530406963080168, -0.001501203398220241, -0.0014493662165477872, -0.0013975289184600115, -0.0013456917367875576, -0.0012938545551151037, -0.001242017257027328, -0.0011901800753548741, -0.0011383428936824203, -0.0010865055955946445, -0.0010346684139221907, -0.000982831115834415, -0.0009309939341619611, -0.0008791566942818463, -0.0008273194544017315, -0.0007754822145216167, -0.0007236449746415019, -0.0006718077347613871, -0.0006199704948812723, -0.0005681333132088184, -0.0005162960151210427, -0.00046445883344858885, -0.00041262159356847405, -0.00036078435368835926, -0.00030894711380824447, -0.0002571098739281297, -0.00020527266315184534, -0.00015343542327173054, -0.00010159818339161575, -4.976097261533141e-05, 2.0762672647833824e-06, 5.3913507144898176e-05, 0.00010575073974905536, 0.00015758797235321254, 0.0002094251976814121, 0.0002612624375615269, 0.0003130996774416417, 0.000364936888217926, 0.0004167741280980408, 0.0004686113679781556, 0.0005204486078582704, 0.0005722858477383852, 0.0006241230294108391, 0.0006759603274986148, 0.0007277975091710687, 0.0007796347490511835, 0.0008314719889312983, 0.000883309228811413, 0.0009351464686915278, 0.0009869836503639817, 0.0010388209484517574, 0.0010906581301242113, 0.001142495428211987, 0.001194332609884441, 0.0012461699079722166, 0.0012980070896446705]}, "gradients/rnn_1.weight_hh_l0": {"_type": "histogram", "values": [1.0, 0.0, 0.0, 0.0, 0.0, 0.0, 1.0, 1.0, 0.0, 0.0, 1.0, 3.0, 1.0, 1.0, 3.0, 6.0, 3.0, 1.0, 6.0, 13.0, 11.0, 10.0, 20.0, 42.0, 42.0, 88.0, 144.0, 348.0, 1018.0, 1309.0, 539.0, 194.0, 97.0, 50.0, 32.0, 27.0, 16.0, 18.0, 12.0, 13.0, 5.0, 2.0, 5.0, 1.0, 4.0, 1.0, 1.0, 1.0, 1.0, 1.0, 1.0, 0.0, 0.0, 0.0, 0.0, 0.0, 0.0, 1.0, 0.0, 0.0, 0.0, 0.0, 0.0, 1.0], "bins": [-0.00048124801833182573, -0.0004647660825867206, -0.00044828414684161544, -0.0004318022110965103, -0.00041532027535140514, -0.00039883831050246954, -0.0003823563747573644, -0.00036587443901225924, -0.0003493925032671541, -0.00033291056752204895, -0.0003164286317769438, -0.00029994669603183866, -0.00028346473118290305, -0.00026698282454162836, -0.00025050085969269276, -0.0002340189239475876, -0.00021753698820248246, -0.00020105505245737731, -0.00018457311671227217, -0.0001680911664152518, -0.00015160923067014664, -0.0001351272949250415, -0.00011864535190397874, -0.00010216340888291597, -8.568147313781083e-05, -6.919953739270568e-05, -5.271759437164292e-05, -3.623565498855896e-05, -1.975371560547501e-05, -3.271779860369861e-06, 1.32101631606929e-05, 2.9692106181755662e-05, 4.6173983719199896e-05, 6.265591946430504e-05, 7.91378624853678e-05, 9.561980550643057e-05, 0.00011210174125153571, 0.00012858367699664086, 0.00014506562729366124, 0.00016154756303876638, 0.00017802949878387153, 0.00019451143452897668, 0.00021099337027408183, 0.0002274753205711022, 0.00024395725631620735, 0.00026043917750939727, 0.00027692114235833287, 0.000293403078103438, 0.00030988501384854317, 0.0003263669495936483, 0.00034284888533875346, 0.0003593308210838586, 0.00037581275682896376, 0.00039229472167789936, 0.0004087766574230045, 0.00042525859316810966, 0.0004417405289132148, 0.00045822246465831995, 0.0004747044004034251, 0.0004911863361485302, 0.0005076683009974658, 0.0005241502076387405, 0.0005406321724876761, 0.0005571141373366117, 0.0005735960439778864]}, "gradients/rnn_1.bias_hh_l0": {"_type": "histogram", "values": [1.0, 1.0, 0.0, 0.0, 1.0, 0.0, 3.0, 1.0, 2.0, 0.0, 0.0, 1.0, 1.0, 1.0, 2.0, 2.0, 3.0, 3.0, 3.0, 11.0, 22.0, 25.0, 20.0, 4.0, 1.0, 4.0, 2.0, 2.0, 1.0, 0.0, 2.0, 1.0, 0.0, 1.0, 0.0, 1.0, 0.0, 0.0, 0.0, 0.0, 1.0, 0.0, 0.0, 0.0, 1.0, 0.0, 0.0, 1.0, 1.0, 0.0, 0.0, 0.0, 0.0, 0.0, 0.0, 0.0, 1.0, 0.0, 0.0, 0.0, 0.0, 0.0, 0.0, 1.0], "bins": [-0.0012056983541697264, -0.0011483017588034272, -0.0010909050470218062, -0.001033508451655507, -0.000976111798081547, -0.000918715144507587, -0.0008613185491412878, -0.0008039218955673277, -0.0007465252419933677, -0.0006891285884194076, -0.0006317319930531085, -0.0005743353394791484, -0.0005169386859051883, -0.0004595420614350587, -0.0004021454369649291, -0.00034474878339096904, -0.0002873521880246699, -0.00022995554900262505, -0.0001725589099805802, -0.0001151622855104506, -5.7765646488405764e-05, -3.6900746636092663e-07, 5.702761700376868e-05, 0.00011442427057772875, 0.00017182089504785836, 0.0002292175340699032, 0.00028661417309194803, 0.00034401079756207764, 0.00040140742203220725, 0.0004588040756061673, 0.0005162006709724665, 0.0005735973827540874, 0.0006309939781203866, 0.0006883906316943467, 0.0007457872270606458, 0.0008031838806346059, 0.000860580534208566, 0.000917977187782526, 0.0009753737831488252, 0.0010327703785151243, 0.0010901670902967453, 0.0011475636856630445, 0.0012049603974446654, 0.0012623569928109646, 0.0013197535881772637, 0.0013771502999588847, 0.0014345468953251839, 0.0014919436071068048, 0.0015493400860577822, 0.0016067366814240813, 0.0016641333932057023, 0.0017215299885720015, 0.0017789265839383006, 0.0018363232957199216, 0.0018937198910862207, 0.0019511166028678417, 0.0020085133146494627, 0.0020659100264310837, 0.002123306505382061, 0.002180703217163682, 0.002238099928945303, 0.0022954964078962803, 0.0023528931196779013, 0.0024102898314595222, 0.0024676863104104996]}, "gradients/rnn_1.bias_ih_l0": {"_type": "histogram", "values": [1.0, 1.0, 0.0, 0.0, 1.0, 0.0, 3.0, 1.0, 2.0, 0.0, 0.0, 1.0, 1.0, 1.0, 2.0, 2.0, 3.0, 3.0, 3.0, 11.0, 22.0, 25.0, 20.0, 4.0, 1.0, 4.0, 2.0, 2.0, 1.0, 0.0, 2.0, 1.0, 0.0, 1.0, 0.0, 1.0, 0.0, 0.0, 0.0, 0.0, 1.0, 0.0, 0.0, 0.0, 1.0, 0.0, 0.0, 1.0, 1.0, 0.0, 0.0, 0.0, 0.0, 0.0, 0.0, 0.0, 1.0, 0.0, 0.0, 0.0, 0.0, 0.0, 0.0, 1.0], "bins": [-0.0012056983541697264, -0.0011483017588034272, -0.0010909050470218062, -0.001033508451655507, -0.000976111798081547, -0.000918715144507587, -0.0008613185491412878, -0.0008039218955673277, -0.0007465252419933677, -0.0006891285884194076, -0.0006317319930531085, -0.0005743353394791484, -0.0005169386859051883, -0.0004595420614350587, -0.0004021454369649291, -0.00034474878339096904, -0.0002873521880246699, -0.00022995554900262505, -0.0001725589099805802, -0.0001151622855104506, -5.7765646488405764e-05, -3.6900746636092663e-07, 5.702761700376868e-05, 0.00011442427057772875, 0.00017182089504785836, 0.0002292175340699032, 0.00028661417309194803, 0.00034401079756207764, 0.00040140742203220725, 0.0004588040756061673, 0.0005162006709724665, 0.0005735973827540874, 0.0006309939781203866, 0.0006883906316943467, 0.0007457872270606458, 0.0008031838806346059, 0.000860580534208566, 0.000917977187782526, 0.0009753737831488252, 0.0010327703785151243, 0.0010901670902967453, 0.0011475636856630445, 0.0012049603974446654, 0.0012623569928109646, 0.0013197535881772637, 0.0013771502999588847, 0.0014345468953251839, 0.0014919436071068048, 0.0015493400860577822, 0.0016067366814240813, 0.0016641333932057023, 0.0017215299885720015, 0.0017789265839383006, 0.0018363232957199216, 0.0018937198910862207, 0.0019511166028678417, 0.0020085133146494627, 0.0020659100264310837, 0.002123306505382061, 0.002180703217163682, 0.002238099928945303, 0.0022954964078962803, 0.0023528931196779013, 0.0024102898314595222, 0.0024676863104104996]}, "gradients/embeddings.weight": {"_type": "histogram", "values": [2.0, 2.0, 0.0, 0.0, 0.0, 3.0, 0.0, 1.0, 2.0, 4.0, 2.0, 1.0, 1.0, 3.0, 2.0, 4.0, 8.0, 7.0, 13.0, 22.0, 25.0, 39.0, 58.0, 100.0, 137.0, 243.0, 327.0, 506.0, 877.0, 1457.0, 3205.0, 3507123.0, 4140.0, 1693.0, 1106.0, 687.0, 386.0, 263.0, 172.0, 120.0, 73.0, 49.0, 38.0, 22.0, 11.0, 12.0, 11.0, 10.0, 5.0, 8.0, 2.0, 1.0, 4.0, 4.0, 2.0, 2.0, 1.0, 2.0, 0.0, 1.0, 0.0, 0.0, 0.0, 1.0], "bins": [-0.00016223601414822042, -0.00015710057050455362, -0.00015196511230897158, -0.00014682966866530478, -0.00014169421046972275, -0.00013655876682605594, -0.00013142332318238914, -0.0001262878649868071, -0.0001211524213431403, -0.00011601697042351589, -0.00011088151950389147, -0.00010574607586022466, -0.00010061062494060025, -9.547517402097583e-05, -9.033973037730902e-05, -8.52042794576846e-05, -8.006882853806019e-05, -7.493337761843577e-05, -6.979792669881135e-05, -6.466248305514455e-05, -5.952703213552013e-05, -5.439158121589571e-05, -4.92561339342501e-05, -4.412068665260449e-05, -3.898523573298007e-05, -3.3849784813355654e-05, -2.8714337531710044e-05, -2.357888843107503e-05, -1.8443439330440015e-05, -1.3307990229805e-05, -8.172541129169986e-06, -3.0370938475243747e-06, 2.0983570721000433e-06, 7.233806172735058e-06, 1.2369255273370072e-05, 1.7504704374005087e-05, 2.26401534746401e-05, 2.7775602575275116e-05, 3.291105167591013e-05, 3.804649895755574e-05, 4.318194987718016e-05, 4.831740079680458e-05, 5.345284807845019e-05, 5.85882953600958e-05, 6.372374627972022e-05, 6.885919719934464e-05, 7.399464084301144e-05, 7.913009176263586e-05, 8.426554268226027e-05, 8.940099360188469e-05, 9.453644452150911e-05, 9.967188816517591e-05, 0.00010480733908480033, 0.00010994279000442475, 0.00011507823364809155, 0.00012021368456771597, 0.0001253491354873404, 0.0001304845791310072, 0.00013562003732658923, 0.00014075548097025603, 0.00014589092461392283, 0.00015102638280950487, 0.00015616182645317167, 0.00016129727009683847, 0.0001664327282924205]}, "_runtime": 893, "_timestamp": 1630348831, "_step": 18968, "_wandb": {"runtime": 894}}